digraph Tree {
node [shape=box] ;
0 [label="X[0] <= 1984.79\nmse = 11.414\nsamples = 202\nvalue = 4.757"] ;
1 [label="X[0] <= 1975.165\nmse = 8.406\nsamples = 34\nvalue = 10.724"] ;
0 -> 1 [labeldistance=2.5, labelangle=45, headlabel="True"] ;
2 [label="X[0] <= 1959.5\nmse = 6.303\nsamples = 9\nvalue = 14.694"] ;
1 -> 2 ;
3 [label="X[0] <= 1958.0\nmse = 0.81\nsamples = 2\nvalue = 18.934"] ;
2 -> 3 ;
4 [label="mse = 0.0\nsamples = 1\nvalue = 19.834"] ;
3 -> 4 ;
5 [label="mse = -0.0\nsamples = 1\nvalue = 18.034"] ;
3 -> 5 ;
6 [label="X[0] <= 1967.5\nmse = 1.267\nsamples = 7\nvalue = 13.482"] ;
2 -> 6 ;
7 [label="X[0] <= 1962.5\nmse = 0.117\nsamples = 2\nvalue = 15.13"] ;
6 -> 7 ;
8 [label="mse = 0.0\nsamples = 1\nvalue = 15.472"] ;
7 -> 8 ;
9 [label="mse = -0.0\nsamples = 1\nvalue = 14.787"] ;
7 -> 9 ;
10 [label="X[0] <= 1975.04\nmse = 0.207\nsamples = 5\nvalue = 12.823"] ;
6 -> 10 ;
11 [label="X[0] <= 1971.5\nmse = 0.096\nsamples = 4\nvalue = 13.004"] ;
10 -> 11 ;
12 [label="mse = 0.0\nsamples = 1\nvalue = 13.506"] ;
11 -> 12 ;
13 [label="X[0] <= 1974.5\nmse = 0.016\nsamples = 3\nvalue = 12.836"] ;
11 -> 13 ;
14 [label="X[0] <= 1973.5\nmse = 0.014\nsamples = 2\nvalue = 12.778"] ;
13 -> 14 ;
15 [label="mse = 0.0\nsamples = 1\nvalue = 12.898"] ;
14 -> 15 ;
16 [label="mse = -0.0\nsamples = 1\nvalue = 12.659"] ;
14 -> 16 ;
17 [label="mse = 0.0\nsamples = 1\nvalue = 12.952"] ;
13 -> 17 ;
18 [label="mse = 0.0\nsamples = 1\nvalue = 12.102"] ;
10 -> 18 ;
19 [label="X[0] <= 1979.375\nmse = 1.446\nsamples = 25\nvalue = 9.295"] ;
1 -> 19 ;
20 [label="X[0] <= 1978.29\nmse = 0.25\nsamples = 14\nvalue = 10.238"] ;
19 -> 20 ;
21 [label="X[0] <= 1976.295\nmse = 0.101\nsamples = 9\nvalue = 10.535"] ;
20 -> 21 ;
22 [label="X[0] <= 1975.5\nmse = 0.033\nsamples = 4\nvalue = 10.838"] ;
21 -> 22 ;
23 [label="mse = 0.0\nsamples = 1\nvalue = 11.121"] ;
22 -> 23 ;
24 [label="X[0] <= 1975.875\nmse = 0.008\nsamples = 3\nvalue = 10.744"] ;
22 -> 24 ;
25 [label="mse = 0.0\nsamples = 1\nvalue = 10.818"] ;
24 -> 25 ;
26 [label="X[0] <= 1976.085\nmse = 0.009\nsamples = 2\nvalue = 10.706"] ;
24 -> 26 ;
27 [label="mse = 0.0\nsamples = 1\nvalue = 10.614"] ;
26 -> 27 ;
28 [label="mse = 0.0\nsamples = 1\nvalue = 10.799"] ;
26 -> 28 ;
29 [label="X[0] <= 1976.5\nmse = 0.024\nsamples = 5\nvalue = 10.292"] ;
21 -> 29 ;
30 [label="mse = 0.0\nsamples = 1\nvalue = 10.045"] ;
29 -> 30 ;
31 [label="X[0] <= 1977.625\nmse = 0.011\nsamples = 4\nvalue = 10.354"] ;
29 -> 31 ;
32 [label="X[0] <= 1976.83\nmse = 0.005\nsamples = 2\nvalue = 10.443"] ;
31 -> 32 ;
33 [label="mse = 0.0\nsamples = 1\nvalue = 10.373"] ;
32 -> 33 ;
34 [label="mse = -0.0\nsamples = 1\nvalue = 10.513"] ;
32 -> 34 ;
35 [label="X[0] <= 1978.21\nmse = 0.001\nsamples = 2\nvalue = 10.265"] ;
31 -> 35 ;
36 [label="mse = 0.0\nsamples = 1\nvalue = 10.24"] ;
35 -> 36 ;
37 [label="mse = -0.0\nsamples = 1\nvalue = 10.29"] ;
35 -> 37 ;
38 [label="X[0] <= 1978.875\nmse = 0.075\nsamples = 5\nvalue = 9.704"] ;
20 -> 38 ;
39 [label="X[0] <= 1978.54\nmse = 0.032\nsamples = 4\nvalue = 9.814"] ;
38 -> 39 ;
40 [label="X[0] <= 1978.415\nmse = 0.012\nsamples = 2\nvalue = 9.974"] ;
39 -> 40 ;
41 [label="mse = 0.0\nsamples = 1\nvalue = 9.863"] ;
40 -> 41 ;
42 [label="mse = -0.0\nsamples = 1\nvalue = 10.086"] ;
40 -> 42 ;
43 [label="X[0] <= 1978.665\nmse = 0.001\nsamples = 2\nvalue = 9.655"] ;
39 -> 43 ;
44 [label="mse = 0.0\nsamples = 1\nvalue = 9.68"] ;
43 -> 44 ;
45 [label="mse = -0.0\nsamples = 1\nvalue = 9.629"] ;
43 -> 45 ;
46 [label="mse = 0.0\nsamples = 1\nvalue = 9.262"] ;
38 -> 46 ;
47 [label="X[0] <= 1982.42\nmse = 0.393\nsamples = 11\nvalue = 8.094"] ;
19 -> 47 ;
48 [label="X[0] <= 1981.29\nmse = 0.095\nsamples = 6\nvalue = 8.608"] ;
47 -> 48 ;
49 [label="X[0] <= 1980.5\nmse = 0.019\nsamples = 3\nvalue = 8.89"] ;
48 -> 49 ;
50 [label="X[0] <= 1979.875\nmse = 0.0\nsamples = 2\nvalue = 8.793"] ;
49 -> 50 ;
51 [label="mse = 0.0\nsamples = 1\nvalue = 8.81"] ;
50 -> 51 ;
52 [label="mse = 0.0\nsamples = 1\nvalue = 8.776"] ;
50 -> 52 ;
53 [label="mse = -0.0\nsamples = 1\nvalue = 9.083"] ;
49 -> 53 ;
54 [label="X[0] <= 1981.79\nmse = 0.013\nsamples = 3\nvalue = 8.326"] ;
48 -> 54 ;
55 [label="mse = 0.0\nsamples = 1\nvalue = 8.407"] ;
54 -> 55 ;
56 [label="X[0] <= 1982.085\nmse = 0.014\nsamples = 2\nvalue = 8.285"] ;
54 -> 56 ;
57 [label="mse = 0.0\nsamples = 1\nvalue = 8.166"] ;
56 -> 57 ;
58 [label="mse = 0.0\nsamples = 1\nvalue = 8.404"] ;
56 -> 58 ;
59 [label="X[0] <= 1983.835\nmse = 0.052\nsamples = 5\nvalue = 7.477"] ;
47 -> 59 ;
60 [label="X[0] <= 1982.835\nmse = 0.008\nsamples = 3\nvalue = 7.654"] ;
59 -> 60 ;
61 [label="mse = 0.0\nsamples = 1\nvalue = 7.591"] ;
60 -> 61 ;
62 [label="X[0] <= 1983.335\nmse = 0.009\nsamples = 2\nvalue = 7.686"] ;
60 -> 62 ;
63 [label="mse = 0.0\nsamples = 1\nvalue = 7.782"] ;
62 -> 63 ;
64 [label="mse = -0.0\nsamples = 1\nvalue = 7.591"] ;
62 -> 64 ;
65 [label="X[0] <= 1984.29\nmse = 0.0\nsamples = 2\nvalue = 7.211"] ;
59 -> 65 ;
66 [label="mse = 0.0\nsamples = 1\nvalue = 7.229"] ;
65 -> 66 ;
67 [label="mse = 0.0\nsamples = 1\nvalue = 7.194"] ;
65 -> 67 ;
68 [label="X[0] <= 1996.46\nmse = 3.36\nsamples = 168\nvalue = 3.55"] ;
0 -> 68 [labeldistance=2.5, labelangle=-45, headlabel="False"] ;
69 [label="X[0] <= 1990.375\nmse = 1.085\nsamples = 129\nvalue = 4.399"] ;
68 -> 69 ;
70 [label="X[0] <= 1989.71\nmse = 0.3\nsamples = 56\nvalue = 5.485"] ;
69 -> 70 ;
71 [label="X[0] <= 1988.46\nmse = 0.252\nsamples = 50\nvalue = 5.58"] ;
70 -> 71 ;
72 [label="X[0] <= 1986.29\nmse = 0.198\nsamples = 36\nvalue = 5.421"] ;
71 -> 72 ;
73 [label="X[0] <= 1985.46\nmse = 0.138\nsamples = 12\nvalue = 5.958"] ;
72 -> 73 ;
74 [label="X[0] <= 1985.375\nmse = 0.037\nsamples = 3\nvalue = 6.556"] ;
73 -> 74 ;
75 [label="X[0] <= 1985.165\nmse = 0.01\nsamples = 2\nvalue = 6.68"] ;
74 -> 75 ;
76 [label="mse = 0.0\nsamples = 1\nvalue = 6.78"] ;
75 -> 76 ;
77 [label="mse = 0.0\nsamples = 1\nvalue = 6.579"] ;
75 -> 77 ;
78 [label="mse = 0.0\nsamples = 1\nvalue = 6.31"] ;
74 -> 78 ;
79 [label="X[0] <= 1985.625\nmse = 0.012\nsamples = 9\nvalue = 5.758"] ;
73 -> 79 ;
80 [label="X[0] <= 1985.54\nmse = 0.008\nsamples = 2\nvalue = 5.949"] ;
79 -> 80 ;
81 [label="mse = 0.0\nsamples = 1\nvalue = 6.04"] ;
80 -> 81 ;
82 [label="mse = 0.0\nsamples = 1\nvalue = 5.858"] ;
80 -> 82 ;
83 [label="mse = 0.0\nsamples = 7\nvalue = 5.704"] ;
79 -> 83 ;
84 [label="X[0] <= 1986.96\nmse = 0.012\nsamples = 24\nvalue = 5.153"] ;
72 -> 84 ;
85 [label="mse = 0.0\nsamples = 7\nvalue = 5.247"] ;
84 -> 85 ;
86 [label="X[0] <= 1988.04\nmse = 0.012\nsamples = 17\nvalue = 5.114"] ;
84 -> 86 ;
87 [label="X[0] <= 1987.125\nmse = 0.005\nsamples = 13\nvalue = 5.065"] ;
86 -> 87 ;
88 [label="mse = 0.0\nsamples = 2\nvalue = 5.17"] ;
87 -> 88 ;
89 [label="X[0] <= 1987.79\nmse = 0.003\nsamples = 11\nvalue = 5.046"] ;
87 -> 89 ;
90 [label="X[0] <= 1987.71\nmse = 0.003\nsamples = 8\nvalue = 5.028"] ;
89 -> 90 ;
91 [label="X[0] <= 1987.625\nmse = 0.0\nsamples = 7\nvalue = 5.048"] ;
90 -> 91 ;
92 [label="X[0] <= 1987.21\nmse = 0.0\nsamples = 6\nvalue = 5.04"] ;
91 -> 92 ;
93 [label="mse = 0.0\nsamples = 1\nvalue = 5.056"] ;
92 -> 93 ;
94 [label="mse = 0.0\nsamples = 5\nvalue = 5.037"] ;
92 -> 94 ;
95 [label="mse = -0.0\nsamples = 1\nvalue = 5.094"] ;
91 -> 95 ;
96 [label="mse = -0.0\nsamples = 1\nvalue = 4.89"] ;
90 -> 96 ;
97 [label="mse = 0.0\nsamples = 3\nvalue = 5.094"] ;
89 -> 97 ;
98 [label="X[0] <= 1988.125\nmse = 0.001\nsamples = 4\nvalue = 5.271"] ;
86 -> 98 ;
99 [label="mse = 0.0\nsamples = 1\nvalue = 5.204"] ;
98 -> 99 ;
100 [label="mse = -0.0\nsamples = 3\nvalue = 5.293"] ;
98 -> 100 ;
101 [label="X[0] <= 1989.46\nmse = 0.158\nsamples = 14\nvalue = 5.989"] ;
71 -> 101 ;
102 [label="X[0] <= 1989.335\nmse = 0.012\nsamples = 11\nvalue = 6.19"] ;
101 -> 102 ;
103 [label="mse = -0.0\nsamples = 10\nvalue = 6.225"] ;
102 -> 103 ;
104 [label="mse = 0.0\nsamples = 1\nvalue = 5.841"] ;
102 -> 104 ;
105 [label="X[0] <= 1989.54\nmse = 0.0\nsamples = 3\nvalue = 5.252"] ;
101 -> 105 ;
106 [label="mse = 0.0\nsamples = 1\nvalue = 5.283"] ;
105 -> 106 ;
107 [label="mse = -0.0\nsamples = 2\nvalue = 5.236"] ;
105 -> 107 ;
108 [label="X[0] <= 1989.96\nmse = 0.009\nsamples = 6\nvalue = 4.697"] ;
70 -> 108 ;
109 [label="X[0] <= 1989.79\nmse = 0.003\nsamples = 3\nvalue = 4.781"] ;
108 -> 109 ;
110 [label="mse = 0.0\nsamples = 1\nvalue = 4.852"] ;
109 -> 110 ;
111 [label="X[0] <= 1989.875\nmse = 0.0\nsamples = 2\nvalue = 4.745"] ;
109 -> 111 ;
112 [label="mse = 0.0\nsamples = 1\nvalue = 4.762"] ;
111 -> 112 ;
113 [label="mse = 0.0\nsamples = 1\nvalue = 4.727"] ;
111 -> 113 ;
114 [label="X[0] <= 1990.085\nmse = 0.001\nsamples = 3\nvalue = 4.613"] ;
108 -> 114 ;
115 [label="mse = 0.0\nsamples = 1\nvalue = 4.663"] ;
114 -> 115 ;
116 [label="mse = 0.0\nsamples = 2\nvalue = 4.588"] ;
114 -> 116 ;
117 [label="X[0] <= 1991.79\nmse = 0.086\nsamples = 73\nvalue = 3.565"] ;
69 -> 117 ;
118 [label="X[0] <= 1990.71\nmse = 0.065\nsamples = 17\nvalue = 3.961"] ;
117 -> 118 ;
119 [label="X[0] <= 1990.625\nmse = 0.007\nsamples = 4\nvalue = 4.394"] ;
118 -> 119 ;
120 [label="X[0] <= 1990.46\nmse = 0.002\nsamples = 3\nvalue = 4.435"] ;
119 -> 120 ;
121 [label="mse = 0.0\nsamples = 1\nvalue = 4.494"] ;
120 -> 121 ;
122 [label="X[0] <= 1990.54\nmse = 0.0\nsamples = 2\nvalue = 4.406"] ;
120 -> 122 ;
123 [label="mse = 0.0\nsamples = 1\nvalue = 4.416"] ;
122 -> 123 ;
124 [label="mse = -0.0\nsamples = 1\nvalue = 4.396"] ;
122 -> 124 ;
125 [label="mse = 0.0\nsamples = 1\nvalue = 4.27"] ;
119 -> 125 ;
126 [label="X[0] <= 1990.875\nmse = 0.007\nsamples = 13\nvalue = 3.828"] ;
118 -> 126 ;
127 [label="X[0] <= 1990.79\nmse = 0.005\nsamples = 2\nvalue = 4.005"] ;
126 -> 127 ;
128 [label="mse = 0.0\nsamples = 1\nvalue = 4.078"] ;
127 -> 128 ;
129 [label="mse = 0.0\nsamples = 1\nvalue = 3.932"] ;
127 -> 129 ;
130 [label="X[0] <= 1991.625\nmse = 0.001\nsamples = 11\nvalue = 3.796"] ;
126 -> 130 ;
131 [label="X[0] <= 1991.54\nmse = 0.001\nsamples = 9\nvalue = 3.79"] ;
130 -> 131 ;
132 [label="X[0] <= 1991.375\nmse = 0.0\nsamples = 8\nvalue = 3.798"] ;
131 -> 132 ;
133 [label="X[0] <= 1990.96\nmse = 0.0\nsamples = 6\nvalue = 3.805"] ;
132 -> 133 ;
134 [label="mse = 0.0\nsamples = 1\nvalue = 3.818"] ;
133 -> 134 ;
135 [label="X[0] <= 1991.125\nmse = 0.0\nsamples = 5\nvalue = 3.802"] ;
133 -> 135 ;
136 [label="mse = 0.0\nsamples = 2\nvalue = 3.795"] ;
135 -> 136 ;
137 [label="mse = -0.0\nsamples = 3\nvalue = 3.807"] ;
135 -> 137 ;
138 [label="mse = -0.0\nsamples = 2\nvalue = 3.78"] ;
132 -> 138 ;
139 [label="mse = -0.0\nsamples = 1\nvalue = 3.721"] ;
131 -> 139 ;
140 [label="X[0] <= 1991.71\nmse = 0.0\nsamples = 2\nvalue = 3.821"] ;
130 -> 140 ;
141 [label="mse = 0.0\nsamples = 1\nvalue = 3.835"] ;
140 -> 141 ;
142 [label="mse = 0.0\nsamples = 1\nvalue = 3.807"] ;
140 -> 142 ;
143 [label="X[0] <= 1996.29\nmse = 0.031\nsamples = 56\nvalue = 3.445"] ;
117 -> 143 ;
144 [label="X[0] <= 1992.29\nmse = 0.015\nsamples = 54\nvalue = 3.47"] ;
143 -> 144 ;
145 [label="X[0] <= 1991.96\nmse = 0.003\nsamples = 6\nvalue = 3.615"] ;
144 -> 145 ;
146 [label="mse = 0.0\nsamples = 2\nvalue = 3.684"] ;
145 -> 146 ;
147 [label="X[0] <= 1992.21\nmse = 0.0\nsamples = 4\nvalue = 3.581"] ;
145 -> 147 ;
148 [label="mse = -0.0\nsamples = 3\nvalue = 3.592"] ;
147 -> 148 ;
149 [label="mse = 0.0\nsamples = 1\nvalue = 3.55"] ;
147 -> 149 ;
150 [label="X[0] <= 1993.71\nmse = 0.013\nsamples = 48\nvalue = 3.452"] ;
144 -> 150 ;
151 [label="X[0] <= 1992.625\nmse = 0.006\nsamples = 17\nvalue = 3.371"] ;
150 -> 151 ;
152 [label="X[0] <= 1992.375\nmse = 0.002\nsamples = 4\nvalue = 3.457"] ;
151 -> 152 ;
153 [label="mse = 0.0\nsamples = 1\nvalue = 3.401"] ;
152 -> 153 ;
154 [label="X[0] <= 1992.54\nmse = 0.001\nsamples = 3\nvalue = 3.476"] ;
152 -> 154 ;
155 [label="X[0] <= 1992.46\nmse = 0.0\nsamples = 2\nvalue = 3.496"] ;
154 -> 155 ;
156 [label="mse = 0.0\nsamples = 1\nvalue = 3.481"] ;
155 -> 156 ;
157 [label="mse = -0.0\nsamples = 1\nvalue = 3.512"] ;
155 -> 157 ;
158 [label="mse = 0.0\nsamples = 1\nvalue = 3.434"] ;
154 -> 158 ;
159 [label="X[0] <= 1992.96\nmse = 0.004\nsamples = 13\nvalue = 3.345"] ;
151 -> 159 ;
160 [label="X[0] <= 1992.71\nmse = 0.0\nsamples = 4\nvalue = 3.281"] ;
159 -> 160 ;
161 [label="mse = 0.0\nsamples = 1\nvalue = 3.314"] ;
160 -> 161 ;
162 [label="mse = 0.0\nsamples = 3\nvalue = 3.27"] ;
160 -> 162 ;
163 [label="X[0] <= 1993.04\nmse = 0.004\nsamples = 9\nvalue = 3.373"] ;
159 -> 163 ;
164 [label="mse = 0.0\nsamples = 1\nvalue = 3.5"] ;
163 -> 164 ;
165 [label="X[0] <= 1993.375\nmse = 0.002\nsamples = 8\nvalue = 3.358"] ;
163 -> 165 ;
166 [label="mse = 0.0\nsamples = 4\nvalue = 3.314"] ;
165 -> 166 ;
167 [label="mse = -0.0\nsamples = 4\nvalue = 3.401"] ;
165 -> 167 ;
168 [label="X[0] <= 1994.71\nmse = 0.011\nsamples = 31\nvalue = 3.496"] ;
150 -> 168 ;
169 [label="X[0] <= 1994.625\nmse = 0.002\nsamples = 12\nvalue = 3.602"] ;
168 -> 169 ;
170 [label="X[0] <= 1994.21\nmse = 0.001\nsamples = 11\nvalue = 3.609"] ;
169 -> 170 ;
171 [label="X[0] <= 1993.875\nmse = 0.001\nsamples = 6\nvalue = 3.597"] ;
170 -> 171 ;
172 [label="X[0] <= 1993.79\nmse = 0.003\nsamples = 2\nvalue = 3.634"] ;
171 -> 172 ;
173 [label="mse = 0.0\nsamples = 1\nvalue = 3.584"] ;
172 -> 173 ;
174 [label="mse = -0.0\nsamples = 1\nvalue = 3.684"] ;
172 -> 174 ;
175 [label="X[0] <= 1994.125\nmse = 0.0\nsamples = 4\nvalue = 3.579"] ;
171 -> 175 ;
176 [label="mse = -0.0\nsamples = 3\nvalue = 3.578"] ;
175 -> 176 ;
177 [label="mse = 0.0\nsamples = 1\nvalue = 3.584"] ;
175 -> 177 ;
178 [label="X[0] <= 1994.54\nmse = 0.0\nsamples = 5\nvalue = 3.624"] ;
170 -> 178 ;
179 [label="X[0] <= 1994.46\nmse = 0.0\nsamples = 4\nvalue = 3.627"] ;
178 -> 179 ;
180 [label="mse = 0.0\nsamples = 3\nvalue = 3.619"] ;
179 -> 180 ;
181 [label="mse = -0.0\nsamples = 1\nvalue = 3.651"] ;
179 -> 181 ;
182 [label="mse = 0.0\nsamples = 1\nvalue = 3.611"] ;
178 -> 182 ;
183 [label="mse = 0.0\nsamples = 1\nvalue = 3.526"] ;
169 -> 183 ;
184 [label="X[0] <= 1996.125\nmse = 0.006\nsamples = 19\nvalue = 3.428"] ;
168 -> 184 ;
185 [label="X[0] <= 1995.96\nmse = 0.001\nsamples = 17\nvalue = 3.451"] ;
184 -> 185 ;
186 [label="X[0] <= 1995.21\nmse = 0.001\nsamples = 15\nvalue = 3.461"] ;
185 -> 186 ;
187 [label="X[0] <= 1994.79\nmse = 0.0\nsamples = 6\nvalue = 3.478"] ;
186 -> 187 ;
188 [label="mse = 0.0\nsamples = 1\nvalue = 3.512"] ;
187 -> 188 ;
189 [label="X[0] <= 1995.04\nmse = 0.0\nsamples = 5\nvalue = 3.471"] ;
187 -> 189 ;
190 [label="mse = 0.0\nsamples = 3\nvalue = 3.475"] ;
189 -> 190 ;
191 [label="mse = -0.0\nsamples = 2\nvalue = 3.466"] ;
189 -> 191 ;
192 [label="X[0] <= 1995.625\nmse = 0.001\nsamples = 9\nvalue = 3.449"] ;
186 -> 192 ;
193 [label="X[0] <= 1995.54\nmse = 0.0\nsamples = 5\nvalue = 3.436"] ;
192 -> 193 ;
194 [label="X[0] <= 1995.375\nmse = 0.0\nsamples = 4\nvalue = 3.44"] ;
193 -> 194 ;
195 [label="mse = 0.0\nsamples = 2\nvalue = 3.44"] ;
194 -> 195 ;
196 [label="X[0] <= 1995.46\nmse = 0.0\nsamples = 2\nvalue = 3.439"] ;
194 -> 196 ;
197 [label="mse = 0.0\nsamples = 1\nvalue = 3.437"] ;
196 -> 197 ;
198 [label="mse = 0.0\nsamples = 1\nvalue = 3.44"] ;
196 -> 198 ;
199 [label="mse = -0.0\nsamples = 1\nvalue = 3.421"] ;
193 -> 199 ;
200 [label="X[0] <= 1995.79\nmse = 0.001\nsamples = 4\nvalue = 3.465"] ;
192 -> 200 ;
201 [label="mse = 0.0\nsamples = 2\nvalue = 3.5"] ;
200 -> 201 ;
202 [label="mse = -0.0\nsamples = 2\nvalue = 3.431"] ;
200 -> 202 ;
203 [label="X[0] <= 1996.04\nmse = 0.0\nsamples = 2\nvalue = 3.379"] ;
185 -> 203 ;
204 [label="mse = 0.0\nsamples = 1\nvalue = 3.398"] ;
203 -> 204 ;
205 [label="mse = -0.0\nsamples = 1\nvalue = 3.36"] ;
203 -> 205 ;
206 [label="X[0] <= 1996.21\nmse = 0.001\nsamples = 2\nvalue = 3.234"] ;
184 -> 206 ;
207 [label="mse = 0.0\nsamples = 1\nvalue = 3.262"] ;
206 -> 207 ;
208 [label="mse = 0.0\nsamples = 1\nvalue = 3.207"] ;
206 -> 208 ;
209 [label="X[0] <= 1996.375\nmse = 0.005\nsamples = 2\nvalue = 2.773"] ;
143 -> 209 ;
210 [label="mse = 0.0\nsamples = 1\nvalue = 2.845"] ;
209 -> 210 ;
211 [label="mse = -0.0\nsamples = 1\nvalue = 2.701"] ;
209 -> 211 ;
212 [label="X[0] <= 1997.875\nmse = 0.616\nsamples = 39\nvalue = 0.742"] ;
68 -> 212 ;
213 [label="X[0] <= 1996.79\nmse = 0.172\nsamples = 17\nvalue = 1.534"] ;
212 -> 213 ;
214 [label="X[0] <= 1996.54\nmse = 0.017\nsamples = 4\nvalue = 2.21"] ;
213 -> 214 ;
215 [label="mse = 0.0\nsamples = 1\nvalue = 2.425"] ;
214 -> 215 ;
216 [label="X[0] <= 1996.625\nmse = 0.003\nsamples = 3\nvalue = 2.139"] ;
214 -> 216 ;
217 [label="mse = 0.0\nsamples = 1\nvalue = 2.204"] ;
216 -> 217 ;
218 [label="X[0] <= 1996.71\nmse = 0.001\nsamples = 2\nvalue = 2.106"] ;
216 -> 218 ;
219 [label="mse = 0.0\nsamples = 1\nvalue = 2.133"] ;
218 -> 219 ;
220 [label="mse = 0.0\nsamples = 1\nvalue = 2.079"] ;
218 -> 220 ;
221 [label="X[0] <= 1997.04\nmse = 0.036\nsamples = 13\nvalue = 1.326"] ;
213 -> 221 ;
222 [label="X[0] <= 1996.96\nmse = 0.004\nsamples = 3\nvalue = 1.616"] ;
221 -> 222 ;
223 [label="mse = 0.0\nsamples = 2\nvalue = 1.658"] ;
222 -> 223 ;
224 [label="mse = 0.0\nsamples = 1\nvalue = 1.533"] ;
222 -> 224 ;
225 [label="X[0] <= 1997.375\nmse = 0.013\nsamples = 10\nvalue = 1.239"] ;
221 -> 225 ;
226 [label="X[0] <= 1997.125\nmse = 0.007\nsamples = 4\nvalue = 1.146"] ;
225 -> 226 ;
227 [label="mse = 0.0\nsamples = 1\nvalue = 1.289"] ;
226 -> 227 ;
228 [label="mse = -0.0\nsamples = 3\nvalue = 1.099"] ;
226 -> 228 ;
229 [label="X[0] <= 1997.71\nmse = 0.007\nsamples = 6\nvalue = 1.301"] ;
225 -> 229 ;
230 [label="X[0] <= 1997.625\nmse = 0.003\nsamples = 4\nvalue = 1.35"] ;
229 -> 230 ;
231 [label="X[0] <= 1997.46\nmse = 0.002\nsamples = 3\nvalue = 1.37"] ;
230 -> 231 ;
232 [label="mse = 0.0\nsamples = 1\nvalue = 1.306"] ;
231 -> 232 ;
233 [label="X[0] <= 1997.54\nmse = 0.0\nsamples = 2\nvalue = 1.402"] ;
231 -> 233 ;
234 [label="mse = 0.0\nsamples = 1\nvalue = 1.386"] ;
233 -> 234 ;
235 [label="mse = -0.0\nsamples = 1\nvalue = 1.418"] ;
233 -> 235 ;
236 [label="mse = -0.0\nsamples = 1\nvalue = 1.289"] ;
230 -> 236 ;
237 [label="X[0] <= 1997.79\nmse = 0.001\nsamples = 2\nvalue = 1.203"] ;
229 -> 237 ;
238 [label="mse = 0.0\nsamples = 1\nvalue = 1.227"] ;
237 -> 238 ;
239 [label="mse = 0.0\nsamples = 1\nvalue = 1.179"] ;
237 -> 239 ;
240 [label="X[0] <= 1998.04\nmse = 0.099\nsamples = 22\nvalue = 0.129"] ;
212 -> 240 ;
241 [label="mse = 0.0\nsamples = 2\nvalue = 0.77"] ;
240 -> 241 ;
242 [label="X[0] <= 1999.875\nmse = 0.063\nsamples = 20\nvalue = 0.065"] ;
240 -> 242 ;
243 [label="X[0] <= 1999.79\nmse = 0.032\nsamples = 19\nvalue = 0.023"] ;
242 -> 243 ;
244 [label="X[0] <= 1999.29\nmse = 0.03\nsamples = 18\nvalue = 0.009"] ;
243 -> 244 ;
245 [label="X[0] <= 1999.15\nmse = 0.028\nsamples = 14\nvalue = 0.047"] ;
244 -> 245 ;
246 [label="X[0] <= 1999.105\nmse = 0.027\nsamples = 12\nvalue = 0.017"] ;
245 -> 246 ;
247 [label="X[0] <= 1999.0\nmse = 0.026\nsamples = 11\nvalue = 0.035"] ;
246 -> 247 ;
248 [label="X[0] <= 1998.79\nmse = 0.017\nsamples = 10\nvalue = 0.002"] ;
247 -> 248 ;
249 [label="X[0] <= 1998.21\nmse = 0.011\nsamples = 8\nvalue = 0.046"] ;
248 -> 249 ;
250 [label="X[0] <= 1998.125\nmse = 0.001\nsamples = 2\nvalue = -0.062"] ;
249 -> 250 ;
251 [label="mse = 0.0\nsamples = 1\nvalue = -0.094"] ;
250 -> 251 ;
252 [label="mse = -0.0\nsamples = 1\nvalue = -0.03"] ;
250 -> 252 ;
253 [label="X[0] <= 1998.375\nmse = 0.009\nsamples = 6\nvalue = 0.082"] ;
249 -> 253 ;
254 [label="X[0] <= 1998.29\nmse = 0.0\nsamples = 2\nvalue = 0.186"] ;
253 -> 254 ;
255 [label="mse = 0.0\nsamples = 1\nvalue = 0.199"] ;
254 -> 255 ;
256 [label="mse = 0.0\nsamples = 1\nvalue = 0.174"] ;
254 -> 256 ;
257 [label="X[0] <= 1998.71\nmse = 0.005\nsamples = 4\nvalue = 0.029"] ;
253 -> 257 ;
258 [label="X[0] <= 1998.5\nmse = 0.001\nsamples = 3\nvalue = -0.01"] ;
257 -> 258 ;
259 [label="mse = 0.0\nsamples = 1\nvalue = -0.03"] ;
258 -> 259 ;
260 [label="X[0] <= 1998.625\nmse = 0.001\nsamples = 2\nvalue = -0.0"] ;
258 -> 260 ;
261 [label="mse = 0.0\nsamples = 1\nvalue = 0.03"] ;
260 -> 261 ;
262 [label="mse = 0.0\nsamples = 1\nvalue = -0.03"] ;
260 -> 262 ;
263 [label="mse = 0.0\nsamples = 1\nvalue = 0.148"] ;
257 -> 263 ;
264 [label="mse = 0.0\nsamples = 2\nvalue = -0.174"] ;
248 -> 264 ;
265 [label="mse = -0.0\nsamples = 1\nvalue = 0.365"] ;
247 -> 265 ;
266 [label="mse = 0.0\nsamples = 1\nvalue = -0.174"] ;
246 -> 266 ;
267 [label="mse = 0.0\nsamples = 2\nvalue = 0.223"] ;
245 -> 267 ;
268 [label="X[0] <= 1999.71\nmse = 0.011\nsamples = 4\nvalue = -0.125"] ;
244 -> 268 ;
269 [label="X[0] <= 1999.585\nmse = 0.002\nsamples = 3\nvalue = -0.18"] ;
268 -> 269 ;
270 [label="X[0] <= 1999.415\nmse = 0.002\nsamples = 2\nvalue = -0.2"] ;
269 -> 270 ;
271 [label="mse = 0.0\nsamples = 1\nvalue = -0.151"] ;
270 -> 271 ;
272 [label="mse = 0.0\nsamples = 1\nvalue = -0.248"] ;
270 -> 272 ;
273 [label="mse = -0.0\nsamples = 1\nvalue = -0.139"] ;
269 -> 273 ;
274 [label="mse = 0.0\nsamples = 1\nvalue = 0.039"] ;
268 -> 274 ;
275 [label="mse = -0.0\nsamples = 1\nvalue = 0.293"] ;
243 -> 275 ;
276 [label="mse = 0.0\nsamples = 1\nvalue = 0.854"] ;
242 -> 276 ;
}